digraph Tree {
node [shape=box] ;
0 [label="X[3] <= 9603.193\ngini = 0.5\nsamples = 2152\nvalue = [1060, 1092]"] ;
1 [label="X[3] <= 9568.042\ngini = 0.477\nsamples = 593\nvalue = [233, 360]"] ;
0 -> 1 [labeldistance=2.5, labelangle=45, headlabel="True"] ;
2 [label="X[2] <= 9484.457\ngini = 0.496\nsamples = 444\nvalue = [202, 242]"] ;
1 -> 2 ;
3 [label="X[1] <= 9458.354\ngini = 0.191\nsamples = 28\nvalue = [3, 25]"] ;
2 -> 3 ;
4 [label="X[3] <= 9513.777\ngini = 0.444\nsamples = 3\nvalue = [2, 1]"] ;
3 -> 4 ;
5 [label="gini = 0.0\nsamples = 2\nvalue = [2, 0]"] ;
4 -> 5 ;
6 [label="gini = 0.0\nsamples = 1\nvalue = [0, 1]"] ;
4 -> 6 ;
7 [label="X[1] <= 9459.913\ngini = 0.077\nsamples = 25\nvalue = [1, 24]"] ;
3 -> 7 ;
8 [label="X[3] <= 9515.438\ngini = 0.32\nsamples = 5\nvalue = [1, 4]"] ;
7 -> 8 ;
9 [label="gini = 0.0\nsamples = 4\nvalue = [0, 4]"] ;
8 -> 9 ;
10 [label="gini = 0.0\nsamples = 1\nvalue = [1, 0]"] ;
8 -> 10 ;
11 [label="gini = 0.0\nsamples = 20\nvalue = [0, 20]"] ;
7 -> 11 ;
12 [label="X[0] <= 9511.815\ngini = 0.499\nsamples = 416\nvalue = [199, 217]"] ;
2 -> 12 ;
13 [label="X[2] <= 9531.997\ngini = 0.436\nsamples = 81\nvalue = [55, 26]"] ;
12 -> 13 ;
14 [label="X[3] <= 9547.636\ngini = 0.475\nsamples = 67\nvalue = [41, 26]"] ;
13 -> 14 ;
15 [label="X[2] <= 9503.176\ngini = 0.401\nsamples = 54\nvalue = [39, 15]"] ;
14 -> 15 ;
16 [label="X[3] <= 9531.414\ngini = 0.473\nsamples = 39\nvalue = [24, 15]"] ;
15 -> 16 ;
17 [label="X[1] <= 9500.889\ngini = 0.346\nsamples = 27\nvalue = [21, 6]"] ;
16 -> 17 ;
18 [label="X[0] <= 9430.325\ngini = 0.227\nsamples = 23\nvalue = [20, 3]"] ;
17 -> 18 ;
19 [label="X[0] <= 9424.655\ngini = 0.5\nsamples = 4\nvalue = [2, 2]"] ;
18 -> 19 ;
20 [label="gini = 0.0\nsamples = 1\nvalue = [1, 0]"] ;
19 -> 20 ;
21 [label="X[1] <= 9472.375\ngini = 0.444\nsamples = 3\nvalue = [1, 2]"] ;
19 -> 21 ;
22 [label="gini = 0.0\nsamples = 2\nvalue = [0, 2]"] ;
21 -> 22 ;
23 [label="gini = 0.0\nsamples = 1\nvalue = [1, 0]"] ;
21 -> 23 ;
24 [label="X[2] <= 9501.555\ngini = 0.1\nsamples = 19\nvalue = [18, 1]"] ;
18 -> 24 ;
25 [label="gini = 0.0\nsamples = 16\nvalue = [16, 0]"] ;
24 -> 25 ;
26 [label="X[0] <= 9506.085\ngini = 0.444\nsamples = 3\nvalue = [2, 1]"] ;
24 -> 26 ;
27 [label="gini = 0.0\nsamples = 2\nvalue = [2, 0]"] ;
26 -> 27 ;
28 [label="gini = 0.0\nsamples = 1\nvalue = [0, 1]"] ;
26 -> 28 ;
29 [label="X[2] <= 9502.022\ngini = 0.375\nsamples = 4\nvalue = [1, 3]"] ;
17 -> 29 ;
30 [label="gini = 0.0\nsamples = 3\nvalue = [0, 3]"] ;
29 -> 30 ;
31 [label="gini = 0.0\nsamples = 1\nvalue = [1, 0]"] ;
29 -> 31 ;
32 [label="X[0] <= 9459.89\ngini = 0.375\nsamples = 12\nvalue = [3, 9]"] ;
16 -> 32 ;
33 [label="gini = 0.0\nsamples = 3\nvalue = [3, 0]"] ;
32 -> 33 ;
34 [label="gini = 0.0\nsamples = 9\nvalue = [0, 9]"] ;
32 -> 34 ;
35 [label="gini = 0.0\nsamples = 15\nvalue = [15, 0]"] ;
15 -> 35 ;
36 [label="X[3] <= 9561.673\ngini = 0.26\nsamples = 13\nvalue = [2, 11]"] ;
14 -> 36 ;
37 [label="gini = 0.0\nsamples = 11\nvalue = [0, 11]"] ;
36 -> 37 ;
38 [label="gini = 0.0\nsamples = 2\nvalue = [2, 0]"] ;
36 -> 38 ;
39 [label="gini = 0.0\nsamples = 14\nvalue = [14, 0]"] ;
13 -> 39 ;
40 [label="X[1] <= 9534.736\ngini = 0.49\nsamples = 335\nvalue = [144, 191]"] ;
12 -> 40 ;
41 [label="X[2] <= 9487.147\ngini = 0.327\nsamples = 68\nvalue = [14, 54]"] ;
40 -> 41 ;
42 [label="X[0] <= 9529.405\ngini = 0.408\nsamples = 7\nvalue = [5, 2]"] ;
41 -> 42 ;
43 [label="gini = 0.0\nsamples = 1\nvalue = [0, 1]"] ;
42 -> 43 ;
44 [label="X[3] <= 9510.315\ngini = 0.278\nsamples = 6\nvalue = [5, 1]"] ;
42 -> 44 ;
45 [label="gini = 0.0\nsamples = 4\nvalue = [4, 0]"] ;
44 -> 45 ;
46 [label="X[3] <= 9510.489\ngini = 0.5\nsamples = 2\nvalue = [1, 1]"] ;
44 -> 46 ;
47 [label="gini = 0.0\nsamples = 1\nvalue = [0, 1]"] ;
46 -> 47 ;
48 [label="gini = 0.0\nsamples = 1\nvalue = [1, 0]"] ;
46 -> 48 ;
49 [label="X[2] <= 9540.608\ngini = 0.252\nsamples = 61\nvalue = [9, 52]"] ;
41 -> 49 ;
50 [label="X[3] <= 9506.206\ngini = 0.209\nsamples = 59\nvalue = [7, 52]"] ;
49 -> 50 ;
51 [label="X[2] <= 9501.956\ngini = 0.426\nsamples = 13\nvalue = [4, 9]"] ;
50 -> 51 ;
52 [label="X[1] <= 9532.537\ngini = 0.444\nsamples = 6\nvalue = [4, 2]"] ;
51 -> 52 ;
53 [label="X[2] <= 9494.923\ngini = 0.32\nsamples = 5\nvalue = [4, 1]"] ;
52 -> 53 ;
54 [label="gini = 0.0\nsamples = 1\nvalue = [0, 1]"] ;
53 -> 54 ;
55 [label="gini = 0.0\nsamples = 4\nvalue = [4, 0]"] ;
53 -> 55 ;
56 [label="gini = 0.0\nsamples = 1\nvalue = [0, 1]"] ;
52 -> 56 ;
57 [label="gini = 0.0\nsamples = 7\nvalue = [0, 7]"] ;
51 -> 57 ;
58 [label="X[0] <= 9521.56\ngini = 0.122\nsamples = 46\nvalue = [3, 43]"] ;
50 -> 58 ;
59 [label="X[1] <= 9512.739\ngini = 0.337\nsamples = 14\nvalue = [3, 11]"] ;
58 -> 59 ;
60 [label="X[2] <= 9501.249\ngini = 0.165\nsamples = 11\nvalue = [1, 10]"] ;
59 -> 60 ;
61 [label="gini = 0.0\nsamples = 1\nvalue = [1, 0]"] ;
60 -> 61 ;
62 [label="gini = 0.0\nsamples = 10\nvalue = [0, 10]"] ;
60 -> 62 ;
63 [label="X[3] <= 9514.217\ngini = 0.444\nsamples = 3\nvalue = [2, 1]"] ;
59 -> 63 ;
64 [label="gini = 0.0\nsamples = 2\nvalue = [2, 0]"] ;
63 -> 64 ;
65 [label="gini = 0.0\nsamples = 1\nvalue = [0, 1]"] ;
63 -> 65 ;
66 [label="gini = 0.0\nsamples = 32\nvalue = [0, 32]"] ;
58 -> 66 ;
67 [label="gini = 0.0\nsamples = 2\nvalue = [2, 0]"] ;
49 -> 67 ;
68 [label="X[0] <= 9562.57\ngini = 0.5\nsamples = 267\nvalue = [130, 137]"] ;
40 -> 68 ;
69 [label="X[3] <= 9502.788\ngini = 0.451\nsamples = 102\nvalue = [67, 35]"] ;
68 -> 69 ;
70 [label="X[3] <= 9502.554\ngini = 0.219\nsamples = 8\nvalue = [1, 7]"] ;
69 -> 70 ;
71 [label="gini = 0.0\nsamples = 1\nvalue = [1, 0]"] ;
70 -> 71 ;
72 [label="gini = 0.0\nsamples = 7\nvalue = [0, 7]"] ;
70 -> 72 ;
73 [label="X[0] <= 9529.76\ngini = 0.418\nsamples = 94\nvalue = [66, 28]"] ;
69 -> 73 ;
74 [label="gini = 0.0\nsamples = 15\nvalue = [15, 0]"] ;
73 -> 74 ;
75 [label="X[2] <= 9543.181\ngini = 0.458\nsamples = 79\nvalue = [51, 28]"] ;
73 -> 75 ;
76 [label="X[1] <= 9546.724\ngini = 0.498\nsamples = 53\nvalue = [28, 25]"] ;
75 -> 76 ;
77 [label="X[2] <= 9542.452\ngini = 0.45\nsamples = 41\nvalue = [27, 14]"] ;
76 -> 77 ;
78 [label="X[1] <= 9544.245\ngini = 0.285\nsamples = 29\nvalue = [24, 5]"] ;
77 -> 78 ;
79 [label="X[2] <= 9499.501\ngini = 0.095\nsamples = 20\nvalue = [19, 1]"] ;
78 -> 79 ;
80 [label="X[2] <= 9498.435\ngini = 0.375\nsamples = 4\nvalue = [3, 1]"] ;
79 -> 80 ;
81 [label="gini = 0.0\nsamples = 3\nvalue = [3, 0]"] ;
80 -> 81 ;
82 [label="gini = 0.0\nsamples = 1\nvalue = [0, 1]"] ;
80 -> 82 ;
83 [label="gini = 0.0\nsamples = 16\nvalue = [16, 0]"] ;
79 -> 83 ;
84 [label="X[0] <= 9537.18\ngini = 0.494\nsamples = 9\nvalue = [5, 4]"] ;
78 -> 84 ;
85 [label="gini = 0.0\nsamples = 2\nvalue = [0, 2]"] ;
84 -> 85 ;
86 [label="X[2] <= 9526.043\ngini = 0.408\nsamples = 7\nvalue = [5, 2]"] ;
84 -> 86 ;
87 [label="gini = 0.0\nsamples = 2\nvalue = [0, 2]"] ;
86 -> 87 ;
88 [label="gini = 0.0\nsamples = 5\nvalue = [5, 0]"] ;
86 -> 88 ;
89 [label="X[3] <= 9511.924\ngini = 0.375\nsamples = 12\nvalue = [3, 9]"] ;
77 -> 89 ;
90 [label="X[3] <= 9511.058\ngini = 0.48\nsamples = 5\nvalue = [3, 2]"] ;
89 -> 90 ;
91 [label="gini = 0.0\nsamples = 2\nvalue = [0, 2]"] ;
90 -> 91 ;
92 [label="gini = 0.0\nsamples = 3\nvalue = [3, 0]"] ;
90 -> 92 ;
93 [label="gini = 0.0\nsamples = 7\nvalue = [0, 7]"] ;
89 -> 93 ;
94 [label="X[0] <= 9559.805\ngini = 0.153\nsamples = 12\nvalue = [1, 11]"] ;
76 -> 94 ;
95 [label="gini = 0.0\nsamples = 11\nvalue = [0, 11]"] ;
94 -> 95 ;
96 [label="gini = 0.0\nsamples = 1\nvalue = [1, 0]"] ;
94 -> 96 ;
97 [label="X[3] <= 9542.408\ngini = 0.204\nsamples = 26\nvalue = [23, 3]"] ;
75 -> 97 ;
98 [label="X[0] <= 9562.185\ngini = 0.147\nsamples = 25\nvalue = [23, 2]"] ;
97 -> 98 ;
99 [label="X[1] <= 9545.085\ngini = 0.08\nsamples = 24\nvalue = [23, 1]"] ;
98 -> 99 ;
100 [label="X[2] <= 9543.615\ngini = 0.32\nsamples = 5\nvalue = [4, 1]"] ;
99 -> 100 ;
101 [label="gini = 0.0\nsamples = 4\nvalue = [4, 0]"] ;
100 -> 101 ;
102 [label="gini = 0.0\nsamples = 1\nvalue = [0, 1]"] ;
100 -> 102 ;
103 [label="gini = 0.0\nsamples = 19\nvalue = [19, 0]"] ;
99 -> 103 ;
104 [label="gini = 0.0\nsamples = 1\nvalue = [0, 1]"] ;
98 -> 104 ;
105 [label="gini = 0.0\nsamples = 1\nvalue = [0, 1]"] ;
97 -> 105 ;
106 [label="X[1] <= 9557.114\ngini = 0.472\nsamples = 165\nvalue = [63, 102]"] ;
68 -> 106 ;
107 [label="X[2] <= 9521.825\ngini = 0.269\nsamples = 25\nvalue = [4, 21]"] ;
106 -> 107 ;
108 [label="X[0] <= 9584.635\ngini = 0.48\nsamples = 5\nvalue = [3, 2]"] ;
107 -> 108 ;
109 [label="X[0] <= 9583.785\ngini = 0.444\nsamples = 3\nvalue = [1, 2]"] ;
108 -> 109 ;
110 [label="gini = 0.0\nsamples = 1\nvalue = [1, 0]"] ;
109 -> 110 ;
111 [label="gini = 0.0\nsamples = 2\nvalue = [0, 2]"] ;
109 -> 111 ;
112 [label="gini = 0.0\nsamples = 2\nvalue = [2, 0]"] ;
108 -> 112 ;
113 [label="X[1] <= 9537.648\ngini = 0.095\nsamples = 20\nvalue = [1, 19]"] ;
107 -> 113 ;
114 [label="X[2] <= 9540.631\ngini = 0.444\nsamples = 3\nvalue = [1, 2]"] ;
113 -> 114 ;
115 [label="gini = 0.0\nsamples = 2\nvalue = [0, 2]"] ;
114 -> 115 ;
116 [label="gini = 0.0\nsamples = 1\nvalue = [1, 0]"] ;
114 -> 116 ;
117 [label="gini = 0.0\nsamples = 17\nvalue = [0, 17]"] ;
113 -> 117 ;
118 [label="X[2] <= 9556.532\ngini = 0.488\nsamples = 140\nvalue = [59, 81]"] ;
106 -> 118 ;
119 [label="X[3] <= 9521.943\ngini = 0.488\nsamples = 45\nvalue = [26, 19]"] ;
118 -> 119 ;
120 [label="gini = 0.0\nsamples = 6\nvalue = [0, 6]"] ;
119 -> 120 ;
121 [label="X[2] <= 9546.89\ngini = 0.444\nsamples = 39\nvalue = [26, 13]"] ;
119 -> 121 ;
122 [label="gini = 0.0\nsamples = 12\nvalue = [12, 0]"] ;
121 -> 122 ;
123 [label="X[2] <= 9549.022\ngini = 0.499\nsamples = 27\nvalue = [14, 13]"] ;
121 -> 123 ;
124 [label="gini = 0.0\nsamples = 6\nvalue = [0, 6]"] ;
123 -> 124 ;
125 [label="X[3] <= 9528.216\ngini = 0.444\nsamples = 21\nvalue = [14, 7]"] ;
123 -> 125 ;
126 [label="gini = 0.0\nsamples = 2\nvalue = [0, 2]"] ;
125 -> 126 ;
127 [label="X[0] <= 9575.1\ngini = 0.388\nsamples = 19\nvalue = [14, 5]"] ;
125 -> 127 ;
128 [label="gini = 0.0\nsamples = 2\nvalue = [0, 2]"] ;
127 -> 128 ;
129 [label="X[3] <= 9549.311\ngini = 0.291\nsamples = 17\nvalue = [14, 3]"] ;
127 -> 129 ;
130 [label="X[0] <= 9579.835\ngini = 0.219\nsamples = 16\nvalue = [14, 2]"] ;
129 -> 130 ;
131 [label="gini = 0.0\nsamples = 11\nvalue = [11, 0]"] ;
130 -> 131 ;
132 [label="X[3] <= 9538.048\ngini = 0.48\nsamples = 5\nvalue = [3, 2]"] ;
130 -> 132 ;
133 [label="gini = 0.0\nsamples = 3\nvalue = [3, 0]"] ;
132 -> 133 ;
134 [label="gini = 0.0\nsamples = 2\nvalue = [0, 2]"] ;
132 -> 134 ;
135 [label="gini = 0.0\nsamples = 1\nvalue = [0, 1]"] ;
129 -> 135 ;
136 [label="X[2] <= 9561.63\ngini = 0.453\nsamples = 95\nvalue = [33, 62]"] ;
118 -> 136 ;
137 [label="gini = 0.0\nsamples = 8\nvalue = [0, 8]"] ;
136 -> 137 ;
138 [label="X[2] <= 9567.486\ngini = 0.471\nsamples = 87\nvalue = [33, 54]"] ;
136 -> 138 ;
139 [label="X[1] <= 9585.614\ngini = 0.444\nsamples = 15\nvalue = [10, 5]"] ;
138 -> 139 ;
140 [label="X[3] <= 9552.88\ngini = 0.278\nsamples = 12\nvalue = [10, 2]"] ;
139 -> 140 ;
141 [label="gini = 0.0\nsamples = 8\nvalue = [8, 0]"] ;
140 -> 141 ;
142 [label="X[2] <= 9565.755\ngini = 0.5\nsamples = 4\nvalue = [2, 2]"] ;
140 -> 142 ;
143 [label="gini = 0.0\nsamples = 2\nvalue = [0, 2]"] ;
142 -> 143 ;
144 [label="gini = 0.0\nsamples = 2\nvalue = [2, 0]"] ;
142 -> 144 ;
145 [label="gini = 0.0\nsamples = 3\nvalue = [0, 3]"] ;
139 -> 145 ;
146 [label="X[2] <= 9576.958\ngini = 0.435\nsamples = 72\nvalue = [23, 49]"] ;
138 -> 146 ;
147 [label="X[3] <= 9560.004\ngini = 0.307\nsamples = 37\nvalue = [7, 30]"] ;
146 -> 147 ;
148 [label="X[0] <= 9567.645\ngini = 0.128\nsamples = 29\nvalue = [2, 27]"] ;
147 -> 148 ;
149 [label="X[0] <= 9567.025\ngini = 0.5\nsamples = 4\nvalue = [2, 2]"] ;
148 -> 149 ;
150 [label="gini = 0.0\nsamples = 2\nvalue = [0, 2]"] ;
149 -> 150 ;
151 [label="gini = 0.0\nsamples = 2\nvalue = [2, 0]"] ;
149 -> 151 ;
152 [label="gini = 0.0\nsamples = 25\nvalue = [0, 25]"] ;
148 -> 152 ;
153 [label="X[2] <= 9573.349\ngini = 0.469\nsamples = 8\nvalue = [5, 3]"] ;
147 -> 153 ;
154 [label="gini = 0.0\nsamples = 4\nvalue = [4, 0]"] ;
153 -> 154 ;
155 [label="X[1] <= 9579.265\ngini = 0.375\nsamples = 4\nvalue = [1, 3]"] ;
153 -> 155 ;
156 [label="gini = 0.0\nsamples = 1\nvalue = [1, 0]"] ;
155 -> 156 ;
157 [label="gini = 0.0\nsamples = 3\nvalue = [0, 3]"] ;
155 -> 157 ;
158 [label="X[3] <= 9548.625\ngini = 0.496\nsamples = 35\nvalue = [16, 19]"] ;
146 -> 158 ;
159 [label="X[1] <= 9566.109\ngini = 0.32\nsamples = 15\nvalue = [3, 12]"] ;
158 -> 159 ;
160 [label="X[0] <= 9563.885\ngini = 0.375\nsamples = 4\nvalue = [3, 1]"] ;
159 -> 160 ;
161 [label="gini = 0.0\nsamples = 1\nvalue = [0, 1]"] ;
160 -> 161 ;
162 [label="gini = 0.0\nsamples = 3\nvalue = [3, 0]"] ;
160 -> 162 ;
163 [label="gini = 0.0\nsamples = 11\nvalue = [0, 11]"] ;
159 -> 163 ;
164 [label="X[0] <= 9667.765\ngini = 0.455\nsamples = 20\nvalue = [13, 7]"] ;
158 -> 164 ;
165 [label="X[2] <= 9585.197\ngini = 0.133\nsamples = 14\nvalue = [13, 1]"] ;
164 -> 165 ;
166 [label="gini = 0.0\nsamples = 12\nvalue = [12, 0]"] ;
165 -> 166 ;
167 [label="X[2] <= 9586.913\ngini = 0.5\nsamples = 2\nvalue = [1, 1]"] ;
165 -> 167 ;
168 [label="gini = 0.0\nsamples = 1\nvalue = [0, 1]"] ;
167 -> 168 ;
169 [label="gini = 0.0\nsamples = 1\nvalue = [1, 0]"] ;
167 -> 169 ;
170 [label="gini = 0.0\nsamples = 6\nvalue = [0, 6]"] ;
164 -> 170 ;
171 [label="X[2] <= 9507.068\ngini = 0.33\nsamples = 149\nvalue = [31, 118]"] ;
1 -> 171 ;
172 [label="gini = 0.0\nsamples = 4\nvalue = [4, 0]"] ;
171 -> 172 ;
173 [label="X[0] <= 9667.505\ngini = 0.303\nsamples = 145\nvalue = [27, 118]"] ;
171 -> 173 ;
174 [label="X[3] <= 9581.417\ngini = 0.162\nsamples = 79\nvalue = [7, 72]"] ;
173 -> 174 ;
175 [label="X[2] <= 9588.538\ngini = 0.366\nsamples = 29\nvalue = [7, 22]"] ;
174 -> 175 ;
176 [label="X[1] <= 9516.342\ngini = 0.211\nsamples = 25\nvalue = [3, 22]"] ;
175 -> 176 ;
177 [label="X[3] <= 9569.182\ngini = 0.375\nsamples = 4\nvalue = [3, 1]"] ;
176 -> 177 ;
178 [label="gini = 0.0\nsamples = 1\nvalue = [0, 1]"] ;
177 -> 178 ;
179 [label="gini = 0.0\nsamples = 3\nvalue = [3, 0]"] ;
177 -> 179 ;
180 [label="gini = 0.0\nsamples = 21\nvalue = [0, 21]"] ;
176 -> 180 ;
181 [label="gini = 0.0\nsamples = 4\nvalue = [4, 0]"] ;
175 -> 181 ;
182 [label="gini = 0.0\nsamples = 50\nvalue = [0, 50]"] ;
174 -> 182 ;
183 [label="X[2] <= 9548.731\ngini = 0.422\nsamples = 66\nvalue = [20, 46]"] ;
173 -> 183 ;
184 [label="X[1] <= 9571.445\ngini = 0.463\nsamples = 11\nvalue = [7, 4]"] ;
183 -> 184 ;
185 [label="gini = 0.0\nsamples = 4\nvalue = [0, 4]"] ;
184 -> 185 ;
186 [label="gini = 0.0\nsamples = 7\nvalue = [7, 0]"] ;
184 -> 186 ;
187 [label="X[3] <= 9594.988\ngini = 0.361\nsamples = 55\nvalue = [13, 42]"] ;
183 -> 187 ;
188 [label="X[2] <= 9558.995\ngini = 0.077\nsamples = 25\nvalue = [1, 24]"] ;
187 -> 188 ;
189 [label="X[1] <= 9637.009\ngini = 0.375\nsamples = 4\nvalue = [1, 3]"] ;
188 -> 189 ;
190 [label="gini = 0.0\nsamples = 3\nvalue = [0, 3]"] ;
189 -> 190 ;
191 [label="gini = 0.0\nsamples = 1\nvalue = [1, 0]"] ;
189 -> 191 ;
192 [label="gini = 0.0\nsamples = 21\nvalue = [0, 21]"] ;
188 -> 192 ;
193 [label="X[1] <= 9737.897\ngini = 0.48\nsamples = 30\nvalue = [12, 18]"] ;
187 -> 193 ;
194 [label="X[0] <= 9671.125\ngini = 0.49\nsamples = 21\nvalue = [12, 9]"] ;
193 -> 194 ;
195 [label="X[0] <= 9668.875\ngini = 0.444\nsamples = 12\nvalue = [4, 8]"] ;
194 -> 195 ;
196 [label="gini = 0.0\nsamples = 2\nvalue = [2, 0]"] ;
195 -> 196 ;
197 [label="X[3] <= 9599.701\ngini = 0.32\nsamples = 10\nvalue = [2, 8]"] ;
195 -> 197 ;
198 [label="gini = 0.0\nsamples = 5\nvalue = [0, 5]"] ;
197 -> 198 ;
199 [label="X[1] <= 9655.419\ngini = 0.48\nsamples = 5\nvalue = [2, 3]"] ;
197 -> 199 ;
200 [label="X[0] <= 9669.105\ngini = 0.444\nsamples = 3\nvalue = [2, 1]"] ;
199 -> 200 ;
201 [label="gini = 0.0\nsamples = 1\nvalue = [1, 0]"] ;
200 -> 201 ;
202 [label="X[3] <= 9600.845\ngini = 0.5\nsamples = 2\nvalue = [1, 1]"] ;
200 -> 202 ;
203 [label="gini = 0.0\nsamples = 1\nvalue = [0, 1]"] ;
202 -> 203 ;
204 [label="gini = 0.0\nsamples = 1\nvalue = [1, 0]"] ;
202 -> 204 ;
205 [label="gini = 0.0\nsamples = 2\nvalue = [0, 2]"] ;
199 -> 205 ;
206 [label="X[2] <= 9610.647\ngini = 0.198\nsamples = 9\nvalue = [8, 1]"] ;
194 -> 206 ;
207 [label="X[3] <= 9595.542\ngini = 0.5\nsamples = 2\nvalue = [1, 1]"] ;
206 -> 207 ;
208 [label="gini = 0.0\nsamples = 1\nvalue = [1, 0]"] ;
207 -> 208 ;
209 [label="gini = 0.0\nsamples = 1\nvalue = [0, 1]"] ;
207 -> 209 ;
210 [label="gini = 0.0\nsamples = 7\nvalue = [7, 0]"] ;
206 -> 210 ;
211 [label="gini = 0.0\nsamples = 9\nvalue = [0, 9]"] ;
193 -> 211 ;
212 [label="X[2] <= 10103.609\ngini = 0.498\nsamples = 1559\nvalue = [827, 732]"] ;
0 -> 212 [labeldistance=2.5, labelangle=-45, headlabel="False"] ;
213 [label="X[1] <= 9791.22\ngini = 0.497\nsamples = 1517\nvalue = [821, 696]"] ;
212 -> 213 ;
214 [label="X[0] <= 9788.29\ngini = 0.5\nsamples = 1297\nvalue = [669, 628]"] ;
213 -> 214 ;
215 [label="X[3] <= 9960.139\ngini = 0.498\nsamples = 1248\nvalue = [663, 585]"] ;
214 -> 215 ;
216 [label="X[1] <= 9724.531\ngini = 0.497\nsamples = 1231\nvalue = [662, 569]"] ;
215 -> 216 ;
217 [label="X[0] <= 9695.54\ngini = 0.5\nsamples = 977\nvalue = [497, 480]"] ;
216 -> 217 ;
218 [label="X[1] <= 9642.31\ngini = 0.494\nsamples = 747\nvalue = [414, 333]"] ;
217 -> 218 ;
219 [label="X[0] <= 9615.48\ngini = 0.498\nsamples = 345\nvalue = [163, 182]"] ;
218 -> 219 ;
220 [label="X[1] <= 9636.913\ngini = 0.493\nsamples = 263\nvalue = [147, 116]"] ;
219 -> 220 ;
221 [label="X[1] <= 9609.04\ngini = 0.488\nsamples = 253\nvalue = [146, 107]"] ;
220 -> 221 ;
222 [label="X[0] <= 9536.09\ngini = 0.5\nsamples = 198\nvalue = [101, 97]"] ;
221 -> 222 ;
223 [label="X[1] <= 9550.011\ngini = 0.477\nsamples = 143\nvalue = [87, 56]"] ;
222 -> 223 ;
224 [label="X[2] <= 9561.442\ngini = 0.491\nsamples = 129\nvalue = [73, 56]"] ;
223 -> 224 ;
225 [label="X[2] <= 9510.126\ngini = 0.442\nsamples = 79\nvalue = [53, 26]"] ;
224 -> 225 ;
226 [label="X[3] <= 9783.695\ngini = 0.496\nsamples = 33\nvalue = [15, 18]"] ;
225 -> 226 ;
227 [label="X[0] <= 9492.26\ngini = 0.435\nsamples = 25\nvalue = [8, 17]"] ;
226 -> 227 ;
228 [label="X[2] <= 9506.428\ngini = 0.444\nsamples = 12\nvalue = [8, 4]"] ;
227 -> 228 ;
229 [label="gini = 0.0\nsamples = 3\nvalue = [0, 3]"] ;
228 -> 229 ;
230 [label="X[3] <= 9659.27\ngini = 0.198\nsamples = 9\nvalue = [8, 1]"] ;
228 -> 230 ;
231 [label="gini = 0.0\nsamples = 8\nvalue = [8, 0]"] ;
230 -> 231 ;
232 [label="gini = 0.0\nsamples = 1\nvalue = [0, 1]"] ;
230 -> 232 ;
233 [label="gini = 0.0\nsamples = 13\nvalue = [0, 13]"] ;
227 -> 233 ;
234 [label="X[2] <= 9502.883\ngini = 0.219\nsamples = 8\nvalue = [7, 1]"] ;
226 -> 234 ;
235 [label="gini = 0.0\nsamples = 1\nvalue = [0, 1]"] ;
234 -> 235 ;
236 [label="gini = 0.0\nsamples = 7\nvalue = [7, 0]"] ;
234 -> 236 ;
237 [label="X[1] <= 9478.576\ngini = 0.287\nsamples = 46\nvalue = [38, 8]"] ;
225 -> 237 ;
238 [label="gini = 0.0\nsamples = 3\nvalue = [0, 3]"] ;
237 -> 238 ;
239 [label="X[1] <= 9518.21\ngini = 0.206\nsamples = 43\nvalue = [38, 5]"] ;
237 -> 239 ;
240 [label="X[2] <= 9511.027\ngini = 0.139\nsamples = 40\nvalue = [37, 3]"] ;
239 -> 240 ;
241 [label="X[0] <= 9492.495\ngini = 0.444\nsamples = 6\nvalue = [4, 2]"] ;
240 -> 241 ;
242 [label="gini = 0.0\nsamples = 2\nvalue = [0, 2]"] ;
241 -> 242 ;
243 [label="gini = 0.0\nsamples = 4\nvalue = [4, 0]"] ;
241 -> 243 ;
244 [label="X[1] <= 9480.521\ngini = 0.057\nsamples = 34\nvalue = [33, 1]"] ;
240 -> 244 ;
245 [label="X[2] <= 9544.739\ngini = 0.444\nsamples = 3\nvalue = [2, 1]"] ;
244 -> 245 ;
246 [label="gini = 0.0\nsamples = 2\nvalue = [2, 0]"] ;
245 -> 246 ;
247 [label="gini = 0.0\nsamples = 1\nvalue = [0, 1]"] ;
245 -> 247 ;
248 [label="gini = 0.0\nsamples = 31\nvalue = [31, 0]"] ;
244 -> 248 ;
249 [label="X[2] <= 9511.656\ngini = 0.444\nsamples = 3\nvalue = [1, 2]"] ;
239 -> 249 ;
250 [label="gini = 0.0\nsamples = 1\nvalue = [1, 0]"] ;
249 -> 250 ;
251 [label="gini = 0.0\nsamples = 2\nvalue = [0, 2]"] ;
249 -> 251 ;
252 [label="X[3] <= 9884.766\ngini = 0.48\nsamples = 50\nvalue = [20, 30]"] ;
224 -> 252 ;
253 [label="X[0] <= 9472.47\ngini = 0.238\nsamples = 29\nvalue = [4, 25]"] ;
252 -> 253 ;
254 [label="X[3] <= 9628.425\ngini = 0.48\nsamples = 5\nvalue = [3, 2]"] ;
253 -> 254 ;
255 [label="gini = 0.0\nsamples = 2\nvalue = [2, 0]"] ;
254 -> 255 ;
256 [label="X[0] <= 9468.95\ngini = 0.444\nsamples = 3\nvalue = [1, 2]"] ;
254 -> 256 ;
257 [label="gini = 0.0\nsamples = 1\nvalue = [0, 1]"] ;
256 -> 257 ;
258 [label="X[2] <= 9595.721\ngini = 0.5\nsamples = 2\nvalue = [1, 1]"] ;
256 -> 258 ;
259 [label="gini = 0.0\nsamples = 1\nvalue = [0, 1]"] ;
258 -> 259 ;
260 [label="gini = 0.0\nsamples = 1\nvalue = [1, 0]"] ;
258 -> 260 ;
261 [label="X[1] <= 9531.979\ngini = 0.08\nsamples = 24\nvalue = [1, 23]"] ;
253 -> 261 ;
262 [label="gini = 0.0\nsamples = 22\nvalue = [0, 22]"] ;
261 -> 262 ;
263 [label="X[2] <= 9590.952\ngini = 0.5\nsamples = 2\nvalue = [1, 1]"] ;
261 -> 263 ;
264 [label="gini = 0.0\nsamples = 1\nvalue = [1, 0]"] ;
263 -> 264 ;
265 [label="gini = 0.0\nsamples = 1\nvalue = [0, 1]"] ;
263 -> 265 ;
266 [label="X[1] <= 9501.42\ngini = 0.363\nsamples = 21\nvalue = [16, 5]"] ;
252 -> 266 ;
267 [label="X[2] <= 9768.984\ngini = 0.486\nsamples = 12\nvalue = [7, 5]"] ;
266 -> 267 ;
268 [label="X[0] <= 9522.595\ngini = 0.408\nsamples = 7\nvalue = [2, 5]"] ;
267 -> 268 ;
269 [label="X[1] <= 9497.831\ngini = 0.278\nsamples = 6\nvalue = [1, 5]"] ;
268 -> 269 ;
270 [label="X[3] <= 9927.837\ngini = 0.444\nsamples = 3\nvalue = [1, 2]"] ;
269 -> 270 ;
271 [label="gini = 0.0\nsamples = 1\nvalue = [1, 0]"] ;
270 -> 271 ;
272 [label="gini = 0.0\nsamples = 2\nvalue = [0, 2]"] ;
270 -> 272 ;
273 [label="gini = 0.0\nsamples = 3\nvalue = [0, 3]"] ;
269 -> 273 ;
274 [label="gini = 0.0\nsamples = 1\nvalue = [1, 0]"] ;
268 -> 274 ;
275 [label="gini = 0.0\nsamples = 5\nvalue = [5, 0]"] ;
267 -> 275 ;
276 [label="gini = 0.0\nsamples = 9\nvalue = [9, 0]"] ;
266 -> 276 ;
277 [label="gini = 0.0\nsamples = 14\nvalue = [14, 0]"] ;
223 -> 277 ;
278 [label="X[3] <= 9668.033\ngini = 0.38\nsamples = 55\nvalue = [14, 41]"] ;
222 -> 278 ;
279 [label="X[3] <= 9663.369\ngini = 0.48\nsamples = 35\nvalue = [14, 21]"] ;
278 -> 279 ;
280 [label="X[1] <= 9606.575\ngini = 0.346\nsamples = 27\nvalue = [6, 21]"] ;
279 -> 280 ;
281 [label="X[0] <= 9539.14\ngini = 0.172\nsamples = 21\nvalue = [2, 19]"] ;
280 -> 281 ;
282 [label="X[1] <= 9586.632\ngini = 0.5\nsamples = 4\nvalue = [2, 2]"] ;
281 -> 282 ;
283 [label="gini = 0.0\nsamples = 1\nvalue = [0, 1]"] ;
282 -> 283 ;
284 [label="X[3] <= 9618.677\ngini = 0.444\nsamples = 3\nvalue = [2, 1]"] ;
282 -> 284 ;
285 [label="gini = 0.0\nsamples = 2\nvalue = [2, 0]"] ;
284 -> 285 ;
286 [label="gini = 0.0\nsamples = 1\nvalue = [0, 1]"] ;
284 -> 286 ;
287 [label="gini = 0.0\nsamples = 17\nvalue = [0, 17]"] ;
281 -> 287 ;
288 [label="X[0] <= 9598.36\ngini = 0.444\nsamples = 6\nvalue = [4, 2]"] ;
280 -> 288 ;
289 [label="gini = 0.0\nsamples = 3\nvalue = [3, 0]"] ;
288 -> 289 ;
290 [label="X[2] <= 9607.368\ngini = 0.444\nsamples = 3\nvalue = [1, 2]"] ;
288 -> 290 ;
291 [label="gini = 0.0\nsamples = 2\nvalue = [0, 2]"] ;
290 -> 291 ;
292 [label="gini = 0.0\nsamples = 1\nvalue = [1, 0]"] ;
290 -> 292 ;
293 [label="gini = 0.0\nsamples = 8\nvalue = [8, 0]"] ;
279 -> 293 ;
294 [label="gini = 0.0\nsamples = 20\nvalue = [0, 20]"] ;
278 -> 294 ;
295 [label="X[3] <= 9692.209\ngini = 0.298\nsamples = 55\nvalue = [45, 10]"] ;
221 -> 295 ;
296 [label="X[0] <= 9613.03\ngini = 0.15\nsamples = 49\nvalue = [45, 4]"] ;
295 -> 296 ;
297 [label="gini = 0.0\nsamples = 41\nvalue = [41, 0]"] ;
296 -> 297 ;
298 [label="X[0] <= 9614.005\ngini = 0.5\nsamples = 8\nvalue = [4, 4]"] ;
296 -> 298 ;
299 [label="X[3] <= 9653.469\ngini = 0.32\nsamples = 5\nvalue = [1, 4]"] ;
298 -> 299 ;
300 [label="gini = 0.0\nsamples = 2\nvalue = [0, 2]"] ;
299 -> 300 ;
301 [label="X[3] <= 9654.348\ngini = 0.444\nsamples = 3\nvalue = [1, 2]"] ;
299 -> 301 ;
302 [label="gini = 0.0\nsamples = 1\nvalue = [1, 0]"] ;
301 -> 302 ;
303 [label="gini = 0.0\nsamples = 2\nvalue = [0, 2]"] ;
301 -> 303 ;
304 [label="gini = 0.0\nsamples = 3\nvalue = [3, 0]"] ;
298 -> 304 ;
305 [label="gini = 0.0\nsamples = 6\nvalue = [0, 6]"] ;
295 -> 305 ;
306 [label="X[3] <= 9632.584\ngini = 0.18\nsamples = 10\nvalue = [1, 9]"] ;
220 -> 306 ;
307 [label="gini = 0.0\nsamples = 1\nvalue = [1, 0]"] ;
306 -> 307 ;
308 [label="gini = 0.0\nsamples = 9\nvalue = [0, 9]"] ;
306 -> 308 ;
309 [label="X[3] <= 9661.125\ngini = 0.314\nsamples = 82\nvalue = [16, 66]"] ;
219 -> 309 ;
310 [label="X[1] <= 9638.402\ngini = 0.208\nsamples = 68\nvalue = [8, 60]"] ;
309 -> 310 ;
311 [label="X[0] <= 9670.445\ngini = 0.123\nsamples = 61\nvalue = [4, 57]"] ;
310 -> 311 ;
312 [label="X[2] <= 9648.909\ngini = 0.043\nsamples = 45\nvalue = [1, 44]"] ;
311 -> 312 ;
313 [label="gini = 0.0\nsamples = 35\nvalue = [0, 35]"] ;
312 -> 313 ;
314 [label="X[1] <= 9630.716\ngini = 0.18\nsamples = 10\nvalue = [1, 9]"] ;
312 -> 314 ;
315 [label="gini = 0.0\nsamples = 1\nvalue = [1, 0]"] ;
314 -> 315 ;
316 [label="gini = 0.0\nsamples = 9\nvalue = [0, 9]"] ;
314 -> 316 ;
317 [label="X[0] <= 9671.425\ngini = 0.305\nsamples = 16\nvalue = [3, 13]"] ;
311 -> 317 ;
318 [label="gini = 0.0\nsamples = 2\nvalue = [2, 0]"] ;
317 -> 318 ;
319 [label="X[3] <= 9639.122\ngini = 0.133\nsamples = 14\nvalue = [1, 13]"] ;
317 -> 319 ;
320 [label="X[3] <= 9638.704\ngini = 0.375\nsamples = 4\nvalue = [1, 3]"] ;
319 -> 320 ;
321 [label="gini = 0.0\nsamples = 3\nvalue = [0, 3]"] ;
320 -> 321 ;
322 [label="gini = 0.0\nsamples = 1\nvalue = [1, 0]"] ;
320 -> 322 ;
323 [label="gini = 0.0\nsamples = 10\nvalue = [0, 10]"] ;
319 -> 323 ;
324 [label="X[3] <= 9637.956\ngini = 0.49\nsamples = 7\nvalue = [4, 3]"] ;
310 -> 324 ;
325 [label="X[1] <= 9641.098\ngini = 0.32\nsamples = 5\nvalue = [4, 1]"] ;
324 -> 325 ;
326 [label="gini = 0.0\nsamples = 4\nvalue = [4, 0]"] ;
325 -> 326 ;
327 [label="gini = 0.0\nsamples = 1\nvalue = [0, 1]"] ;
325 -> 327 ;
328 [label="gini = 0.0\nsamples = 2\nvalue = [0, 2]"] ;
324 -> 328 ;
329 [label="X[1] <= 9594.822\ngini = 0.49\nsamples = 14\nvalue = [8, 6]"] ;
309 -> 329 ;
330 [label="gini = 0.0\nsamples = 4\nvalue = [0, 4]"] ;
329 -> 330 ;
331 [label="X[1] <= 9641.561\ngini = 0.32\nsamples = 10\nvalue = [8, 2]"] ;
329 -> 331 ;
332 [label="X[1] <= 9596.095\ngini = 0.198\nsamples = 9\nvalue = [8, 1]"] ;
331 -> 332 ;
333 [label="X[1] <= 9595.428\ngini = 0.5\nsamples = 2\nvalue = [1, 1]"] ;
332 -> 333 ;
334 [label="gini = 0.0\nsamples = 1\nvalue = [1, 0]"] ;
333 -> 334 ;
335 [label="gini = 0.0\nsamples = 1\nvalue = [0, 1]"] ;
333 -> 335 ;
336 [label="gini = 0.0\nsamples = 7\nvalue = [7, 0]"] ;
332 -> 336 ;
337 [label="gini = 0.0\nsamples = 1\nvalue = [0, 1]"] ;
331 -> 337 ;
338 [label="X[0] <= 9649.715\ngini = 0.469\nsamples = 402\nvalue = [251, 151]"] ;
218 -> 338 ;
339 [label="X[2] <= 9648.917\ngini = 0.275\nsamples = 79\nvalue = [66, 13]"] ;
338 -> 339 ;
340 [label="X[2] <= 9642.697\ngini = 0.444\nsamples = 24\nvalue = [16, 8]"] ;
339 -> 340 ;
341 [label="X[3] <= 9606.349\ngini = 0.198\nsamples = 18\nvalue = [16, 2]"] ;
340 -> 341 ;
342 [label="gini = 0.0\nsamples = 10\nvalue = [10, 0]"] ;
341 -> 342 ;
343 [label="X[2] <= 9639.671\ngini = 0.375\nsamples = 8\nvalue = [6, 2]"] ;
341 -> 343 ;
344 [label="gini = 0.0\nsamples = 2\nvalue = [0, 2]"] ;
343 -> 344 ;
345 [label="gini = 0.0\nsamples = 6\nvalue = [6, 0]"] ;
343 -> 345 ;
346 [label="gini = 0.0\nsamples = 6\nvalue = [0, 6]"] ;
340 -> 346 ;
347 [label="X[3] <= 9660.742\ngini = 0.165\nsamples = 55\nvalue = [50, 5]"] ;
339 -> 347 ;
348 [label="gini = 0.0\nsamples = 25\nvalue = [25, 0]"] ;
347 -> 348 ;
349 [label="X[3] <= 9660.766\ngini = 0.278\nsamples = 30\nvalue = [25, 5]"] ;
347 -> 349 ;
350 [label="gini = 0.0\nsamples = 2\nvalue = [0, 2]"] ;
349 -> 350 ;
351 [label="X[1] <= 9644.332\ngini = 0.191\nsamples = 28\nvalue = [25, 3]"] ;
349 -> 351 ;
352 [label="gini = 0.0\nsamples = 2\nvalue = [0, 2]"] ;
351 -> 352 ;
353 [label="X[0] <= 9648.29\ngini = 0.074\nsamples = 26\nvalue = [25, 1]"] ;
351 -> 353 ;
354 [label="gini = 0.0\nsamples = 25\nvalue = [25, 0]"] ;
353 -> 354 ;
355 [label="gini = 0.0\nsamples = 1\nvalue = [0, 1]"] ;
353 -> 355 ;
356 [label="X[1] <= 9679.769\ngini = 0.489\nsamples = 323\nvalue = [185, 138]"] ;
338 -> 356 ;
357 [label="X[3] <= 9651.258\ngini = 0.496\nsamples = 156\nvalue = [71, 85]"] ;
356 -> 357 ;
358 [label="X[1] <= 9652.358\ngini = 0.473\nsamples = 73\nvalue = [45, 28]"] ;
357 -> 358 ;
359 [label="X[1] <= 9648.862\ngini = 0.375\nsamples = 16\nvalue = [4, 12]"] ;
358 -> 359 ;
360 [label="X[3] <= 9635.785\ngini = 0.5\nsamples = 8\nvalue = [4, 4]"] ;
359 -> 360 ;
361 [label="gini = 0.0\nsamples = 4\nvalue = [4, 0]"] ;
360 -> 361 ;
362 [label="gini = 0.0\nsamples = 4\nvalue = [0, 4]"] ;
360 -> 362 ;
363 [label="gini = 0.0\nsamples = 8\nvalue = [0, 8]"] ;
359 -> 363 ;
364 [label="X[2] <= 9653.878\ngini = 0.404\nsamples = 57\nvalue = [41, 16]"] ;
358 -> 364 ;
365 [label="X[1] <= 9671.328\ngini = 0.292\nsamples = 45\nvalue = [37, 8]"] ;
364 -> 365 ;
366 [label="X[0] <= 9690.655\ngini = 0.128\nsamples = 29\nvalue = [27, 2]"] ;
365 -> 366 ;
367 [label="gini = 0.0\nsamples = 25\nvalue = [25, 0]"] ;
366 -> 367 ;
368 [label="X[1] <= 9655.631\ngini = 0.5\nsamples = 4\nvalue = [2, 2]"] ;
366 -> 368 ;
369 [label="gini = 0.0\nsamples = 2\nvalue = [2, 0]"] ;
368 -> 369 ;
370 [label="gini = 0.0\nsamples = 2\nvalue = [0, 2]"] ;
368 -> 370 ;
371 [label="X[2] <= 9644.882\ngini = 0.469\nsamples = 16\nvalue = [10, 6]"] ;
365 -> 371 ;
372 [label="gini = 0.0\nsamples = 9\nvalue = [9, 0]"] ;
371 -> 372 ;
373 [label="X[3] <= 9630.266\ngini = 0.245\nsamples = 7\nvalue = [1, 6]"] ;
371 -> 373 ;
374 [label="gini = 0.0\nsamples = 1\nvalue = [1, 0]"] ;
373 -> 374 ;
375 [label="gini = 0.0\nsamples = 6\nvalue = [0, 6]"] ;
373 -> 375 ;
376 [label="X[1] <= 9657.909\ngini = 0.444\nsamples = 12\nvalue = [4, 8]"] ;
364 -> 376 ;
377 [label="gini = 0.0\nsamples = 4\nvalue = [4, 0]"] ;
376 -> 377 ;
378 [label="gini = 0.0\nsamples = 8\nvalue = [0, 8]"] ;
376 -> 378 ;
379 [label="X[0] <= 9666.22\ngini = 0.43\nsamples = 83\nvalue = [26, 57]"] ;
357 -> 379 ;
380 [label="X[2] <= 9671.661\ngini = 0.497\nsamples = 39\nvalue = [18, 21]"] ;
379 -> 380 ;
381 [label="X[2] <= 9650.581\ngini = 0.355\nsamples = 26\nvalue = [6, 20]"] ;
380 -> 381 ;
382 [label="X[3] <= 9652.917\ngini = 0.444\nsamples = 3\nvalue = [2, 1]"] ;
381 -> 382 ;
383 [label="gini = 0.0\nsamples = 1\nvalue = [0, 1]"] ;
382 -> 383 ;
384 [label="gini = 0.0\nsamples = 2\nvalue = [2, 0]"] ;
382 -> 384 ;
385 [label="X[0] <= 9659.515\ngini = 0.287\nsamples = 23\nvalue = [4, 19]"] ;
381 -> 385 ;
386 [label="gini = 0.0\nsamples = 7\nvalue = [0, 7]"] ;
385 -> 386 ;
387 [label="X[0] <= 9659.74\ngini = 0.375\nsamples = 16\nvalue = [4, 12]"] ;
385 -> 387 ;
388 [label="gini = 0.0\nsamples = 1\nvalue = [1, 0]"] ;
387 -> 388 ;
389 [label="X[0] <= 9662.04\ngini = 0.32\nsamples = 15\nvalue = [3, 12]"] ;
387 -> 389 ;
390 [label="X[0] <= 9661.735\ngini = 0.42\nsamples = 10\nvalue = [3, 7]"] ;
389 -> 390 ;
391 [label="X[2] <= 9650.75\ngini = 0.219\nsamples = 8\nvalue = [1, 7]"] ;
390 -> 391 ;
392 [label="X[2] <= 9650.624\ngini = 0.5\nsamples = 2\nvalue = [1, 1]"] ;
391 -> 392 ;
393 [label="gini = 0.0\nsamples = 1\nvalue = [0, 1]"] ;
392 -> 393 ;
394 [label="gini = 0.0\nsamples = 1\nvalue = [1, 0]"] ;
392 -> 394 ;
395 [label="gini = 0.0\nsamples = 6\nvalue = [0, 6]"] ;
391 -> 395 ;
396 [label="gini = 0.0\nsamples = 2\nvalue = [2, 0]"] ;
390 -> 396 ;
397 [label="gini = 0.0\nsamples = 5\nvalue = [0, 5]"] ;
389 -> 397 ;
398 [label="X[3] <= 9661.612\ngini = 0.142\nsamples = 13\nvalue = [12, 1]"] ;
380 -> 398 ;
399 [label="gini = 0.0\nsamples = 11\nvalue = [11, 0]"] ;
398 -> 399 ;
400 [label="X[3] <= 9661.692\ngini = 0.5\nsamples = 2\nvalue = [1, 1]"] ;
398 -> 400 ;
401 [label="gini = 0.0\nsamples = 1\nvalue = [0, 1]"] ;
400 -> 401 ;
402 [label="gini = 0.0\nsamples = 1\nvalue = [1, 0]"] ;
400 -> 402 ;
403 [label="X[3] <= 9660.19\ngini = 0.298\nsamples = 44\nvalue = [8, 36]"] ;
379 -> 403 ;
404 [label="X[2] <= 9666.765\ngini = 0.463\nsamples = 22\nvalue = [8, 14]"] ;
403 -> 404 ;
405 [label="gini = 0.0\nsamples = 11\nvalue = [0, 11]"] ;
404 -> 405 ;
406 [label="X[1] <= 9670.078\ngini = 0.397\nsamples = 11\nvalue = [8, 3]"] ;
404 -> 406 ;
407 [label="gini = 0.0\nsamples = 5\nvalue = [5, 0]"] ;
406 -> 407 ;
408 [label="X[2] <= 9672.151\ngini = 0.5\nsamples = 6\nvalue = [3, 3]"] ;
406 -> 408 ;
409 [label="gini = 0.0\nsamples = 3\nvalue = [0, 3]"] ;
408 -> 409 ;
410 [label="gini = 0.0\nsamples = 3\nvalue = [3, 0]"] ;
408 -> 410 ;
411 [label="gini = 0.0\nsamples = 22\nvalue = [0, 22]"] ;
403 -> 411 ;
412 [label="X[2] <= 9715.313\ngini = 0.433\nsamples = 167\nvalue = [114, 53]"] ;
356 -> 412 ;
413 [label="X[2] <= 9709.851\ngini = 0.358\nsamples = 124\nvalue = [95, 29]"] ;
412 -> 413 ;
414 [label="X[2] <= 9706.903\ngini = 0.416\nsamples = 95\nvalue = [67, 28]"] ;
413 -> 414 ;
415 [label="X[3] <= 9719.82\ngini = 0.301\nsamples = 76\nvalue = [62, 14]"] ;
414 -> 415 ;
416 [label="X[2] <= 9671.2\ngini = 0.213\nsamples = 66\nvalue = [58, 8]"] ;
415 -> 416 ;
417 [label="X[3] <= 9660.921\ngini = 0.5\nsamples = 4\nvalue = [2, 2]"] ;
416 -> 417 ;
418 [label="gini = 0.0\nsamples = 2\nvalue = [2, 0]"] ;
417 -> 418 ;
419 [label="gini = 0.0\nsamples = 2\nvalue = [0, 2]"] ;
417 -> 419 ;
420 [label="X[1] <= 9687.864\ngini = 0.175\nsamples = 62\nvalue = [56, 6]"] ;
416 -> 420 ;
421 [label="X[1] <= 9682.419\ngini = 0.105\nsamples = 54\nvalue = [51, 3]"] ;
420 -> 421 ;
422 [label="X[1] <= 9682.081\ngini = 0.245\nsamples = 14\nvalue = [12, 2]"] ;
421 -> 422 ;
423 [label="X[3] <= 9701.165\ngini = 0.142\nsamples = 13\nvalue = [12, 1]"] ;
422 -> 423 ;
424 [label="gini = 0.0\nsamples = 10\nvalue = [10, 0]"] ;
423 -> 424 ;
425 [label="X[2] <= 9684.606\ngini = 0.444\nsamples = 3\nvalue = [2, 1]"] ;
423 -> 425 ;
426 [label="gini = 0.0\nsamples = 1\nvalue = [0, 1]"] ;
425 -> 426 ;
427 [label="gini = 0.0\nsamples = 2\nvalue = [2, 0]"] ;
425 -> 427 ;
428 [label="gini = 0.0\nsamples = 1\nvalue = [0, 1]"] ;
422 -> 428 ;
429 [label="X[2] <= 9705.729\ngini = 0.049\nsamples = 40\nvalue = [39, 1]"] ;
421 -> 429 ;
430 [label="gini = 0.0\nsamples = 35\nvalue = [35, 0]"] ;
429 -> 430 ;
431 [label="X[2] <= 9705.817\ngini = 0.32\nsamples = 5\nvalue = [4, 1]"] ;
429 -> 431 ;
432 [label="gini = 0.0\nsamples = 1\nvalue = [0, 1]"] ;
431 -> 432 ;
433 [label="gini = 0.0\nsamples = 4\nvalue = [4, 0]"] ;
431 -> 433 ;
434 [label="X[2] <= 9690.79\ngini = 0.469\nsamples = 8\nvalue = [5, 3]"] ;
420 -> 434 ;
435 [label="gini = 0.0\nsamples = 4\nvalue = [4, 0]"] ;
434 -> 435 ;
436 [label="X[3] <= 9717.812\ngini = 0.375\nsamples = 4\nvalue = [1, 3]"] ;
434 -> 436 ;
437 [label="gini = 0.0\nsamples = 3\nvalue = [0, 3]"] ;
436 -> 437 ;
438 [label="gini = 0.0\nsamples = 1\nvalue = [1, 0]"] ;
436 -> 438 ;
439 [label="X[1] <= 9689.078\ngini = 0.48\nsamples = 10\nvalue = [4, 6]"] ;
415 -> 439 ;
440 [label="gini = 0.0\nsamples = 3\nvalue = [0, 3]"] ;
439 -> 440 ;
441 [label="X[1] <= 9693.81\ngini = 0.49\nsamples = 7\nvalue = [4, 3]"] ;
439 -> 441 ;
442 [label="gini = 0.0\nsamples = 3\nvalue = [3, 0]"] ;
441 -> 442 ;
443 [label="X[2] <= 9706.494\ngini = 0.375\nsamples = 4\nvalue = [1, 3]"] ;
441 -> 443 ;
444 [label="gini = 0.0\nsamples = 3\nvalue = [0, 3]"] ;
443 -> 444 ;
445 [label="gini = 0.0\nsamples = 1\nvalue = [1, 0]"] ;
443 -> 445 ;
446 [label="X[1] <= 9697.935\ngini = 0.388\nsamples = 19\nvalue = [5, 14]"] ;
414 -> 446 ;
447 [label="gini = 0.0\nsamples = 13\nvalue = [0, 13]"] ;
446 -> 447 ;
448 [label="X[3] <= 9729.419\ngini = 0.278\nsamples = 6\nvalue = [5, 1]"] ;
446 -> 448 ;
449 [label="gini = 0.0\nsamples = 4\nvalue = [4, 0]"] ;
448 -> 449 ;
450 [label="X[1] <= 9709.821\ngini = 0.5\nsamples = 2\nvalue = [1, 1]"] ;
448 -> 450 ;
451 [label="gini = 0.0\nsamples = 1\nvalue = [0, 1]"] ;
450 -> 451 ;
452 [label="gini = 0.0\nsamples = 1\nvalue = [1, 0]"] ;
450 -> 452 ;
453 [label="X[0] <= 9675.705\ngini = 0.067\nsamples = 29\nvalue = [28, 1]"] ;
413 -> 453 ;
454 [label="X[0] <= 9675.215\ngini = 0.444\nsamples = 3\nvalue = [2, 1]"] ;
453 -> 454 ;
455 [label="gini = 0.0\nsamples = 2\nvalue = [2, 0]"] ;
454 -> 455 ;
456 [label="gini = 0.0\nsamples = 1\nvalue = [0, 1]"] ;
454 -> 456 ;
457 [label="gini = 0.0\nsamples = 26\nvalue = [26, 0]"] ;
453 -> 457 ;
458 [label="X[2] <= 9719.751\ngini = 0.493\nsamples = 43\nvalue = [19, 24]"] ;
412 -> 458 ;
459 [label="X[2] <= 9717.125\ngini = 0.153\nsamples = 12\nvalue = [1, 11]"] ;
458 -> 459 ;
460 [label="gini = 0.0\nsamples = 7\nvalue = [0, 7]"] ;
459 -> 460 ;
461 [label="X[3] <= 9730.731\ngini = 0.32\nsamples = 5\nvalue = [1, 4]"] ;
459 -> 461 ;
462 [label="gini = 0.0\nsamples = 1\nvalue = [1, 0]"] ;
461 -> 462 ;
463 [label="gini = 0.0\nsamples = 4\nvalue = [0, 4]"] ;
461 -> 463 ;
464 [label="X[0] <= 9678.765\ngini = 0.487\nsamples = 31\nvalue = [18, 13]"] ;
458 -> 464 ;
465 [label="gini = 0.0\nsamples = 5\nvalue = [5, 0]"] ;
464 -> 465 ;
466 [label="X[1] <= 9687.825\ngini = 0.5\nsamples = 26\nvalue = [13, 13]"] ;
464 -> 466 ;
467 [label="gini = 0.0\nsamples = 5\nvalue = [0, 5]"] ;
466 -> 467 ;
468 [label="X[1] <= 9717.637\ngini = 0.472\nsamples = 21\nvalue = [13, 8]"] ;
466 -> 468 ;
469 [label="X[2] <= 9743.322\ngini = 0.355\nsamples = 13\nvalue = [10, 3]"] ;
468 -> 469 ;
470 [label="gini = 0.0\nsamples = 8\nvalue = [8, 0]"] ;
469 -> 470 ;
471 [label="X[0] <= 9688.455\ngini = 0.48\nsamples = 5\nvalue = [2, 3]"] ;
469 -> 471 ;
472 [label="X[2] <= 9749.211\ngini = 0.444\nsamples = 3\nvalue = [2, 1]"] ;
471 -> 472 ;
473 [label="gini = 0.0\nsamples = 1\nvalue = [1, 0]"] ;
472 -> 473 ;
474 [label="X[0] <= 9681.295\ngini = 0.5\nsamples = 2\nvalue = [1, 1]"] ;
472 -> 474 ;
475 [label="gini = 0.0\nsamples = 1\nvalue = [1, 0]"] ;
474 -> 475 ;
476 [label="gini = 0.0\nsamples = 1\nvalue = [0, 1]"] ;
474 -> 476 ;
477 [label="gini = 0.0\nsamples = 2\nvalue = [0, 2]"] ;
471 -> 477 ;
478 [label="X[1] <= 9723.775\ngini = 0.469\nsamples = 8\nvalue = [3, 5]"] ;
468 -> 478 ;
479 [label="X[0] <= 9690.35\ngini = 0.278\nsamples = 6\nvalue = [1, 5]"] ;
478 -> 479 ;
480 [label="gini = 0.0\nsamples = 4\nvalue = [0, 4]"] ;
479 -> 480 ;
481 [label="X[1] <= 9722.436\ngini = 0.5\nsamples = 2\nvalue = [1, 1]"] ;
479 -> 481 ;
482 [label="gini = 0.0\nsamples = 1\nvalue = [1, 0]"] ;
481 -> 482 ;
483 [label="gini = 0.0\nsamples = 1\nvalue = [0, 1]"] ;
481 -> 483 ;
484 [label="gini = 0.0\nsamples = 2\nvalue = [2, 0]"] ;
478 -> 484 ;
485 [label="X[2] <= 9715.885\ngini = 0.461\nsamples = 230\nvalue = [83, 147]"] ;
217 -> 485 ;
486 [label="X[3] <= 9721.041\ngini = 0.496\nsamples = 176\nvalue = [80, 96]"] ;
485 -> 486 ;
487 [label="X[3] <= 9716.112\ngini = 0.473\nsamples = 141\nvalue = [54, 87]"] ;
486 -> 487 ;
488 [label="X[2] <= 9688.965\ngini = 0.494\nsamples = 112\nvalue = [50, 62]"] ;
487 -> 488 ;
489 [label="X[2] <= 9639.737\ngini = 0.375\nsamples = 40\nvalue = [10, 30]"] ;
488 -> 489 ;
490 [label="X[1] <= 9667.138\ngini = 0.499\nsamples = 21\nvalue = [10, 11]"] ;
489 -> 490 ;
491 [label="X[3] <= 9635.918\ngini = 0.337\nsamples = 14\nvalue = [3, 11]"] ;
490 -> 491 ;
492 [label="X[0] <= 9755.495\ngini = 0.165\nsamples = 11\nvalue = [1, 10]"] ;
491 -> 492 ;
493 [label="gini = 0.0\nsamples = 10\nvalue = [0, 10]"] ;
492 -> 493 ;
494 [label="gini = 0.0\nsamples = 1\nvalue = [1, 0]"] ;
492 -> 494 ;
495 [label="X[3] <= 9638.565\ngini = 0.444\nsamples = 3\nvalue = [2, 1]"] ;
491 -> 495 ;
496 [label="gini = 0.0\nsamples = 2\nvalue = [2, 0]"] ;
495 -> 496 ;
497 [label="gini = 0.0\nsamples = 1\nvalue = [0, 1]"] ;
495 -> 497 ;
498 [label="gini = 0.0\nsamples = 7\nvalue = [7, 0]"] ;
490 -> 498 ;
499 [label="gini = 0.0\nsamples = 19\nvalue = [0, 19]"] ;
489 -> 499 ;
500 [label="X[1] <= 9707.023\ngini = 0.494\nsamples = 72\nvalue = [40, 32]"] ;
488 -> 500 ;
501 [label="X[0] <= 9704.045\ngini = 0.105\nsamples = 18\nvalue = [17, 1]"] ;
500 -> 501 ;
502 [label="X[0] <= 9703.275\ngini = 0.5\nsamples = 2\nvalue = [1, 1]"] ;
501 -> 502 ;
503 [label="gini = 0.0\nsamples = 1\nvalue = [1, 0]"] ;
502 -> 503 ;
504 [label="gini = 0.0\nsamples = 1\nvalue = [0, 1]"] ;
502 -> 504 ;
505 [label="gini = 0.0\nsamples = 16\nvalue = [16, 0]"] ;
501 -> 505 ;
506 [label="X[1] <= 9714.787\ngini = 0.489\nsamples = 54\nvalue = [23, 31]"] ;
500 -> 506 ;
507 [label="X[3] <= 9696.898\ngini = 0.35\nsamples = 31\nvalue = [7, 24]"] ;
506 -> 507 ;
508 [label="gini = 0.0\nsamples = 2\nvalue = [2, 0]"] ;
507 -> 508 ;
509 [label="X[3] <= 9715.721\ngini = 0.285\nsamples = 29\nvalue = [5, 24]"] ;
507 -> 509 ;
510 [label="X[0] <= 9711.595\ngini = 0.245\nsamples = 28\nvalue = [4, 24]"] ;
509 -> 510 ;
511 [label="X[1] <= 9713.387\ngini = 0.463\nsamples = 11\nvalue = [4, 7]"] ;
510 -> 511 ;
512 [label="gini = 0.0\nsamples = 6\nvalue = [0, 6]"] ;
511 -> 512 ;
513 [label="X[1] <= 9714.035\ngini = 0.32\nsamples = 5\nvalue = [4, 1]"] ;
511 -> 513 ;
514 [label="gini = 0.0\nsamples = 4\nvalue = [4, 0]"] ;
513 -> 514 ;
515 [label="gini = 0.0\nsamples = 1\nvalue = [0, 1]"] ;
513 -> 515 ;
516 [label="gini = 0.0\nsamples = 17\nvalue = [0, 17]"] ;
510 -> 516 ;
517 [label="gini = 0.0\nsamples = 1\nvalue = [1, 0]"] ;
509 -> 517 ;
518 [label="X[3] <= 9701.33\ngini = 0.423\nsamples = 23\nvalue = [16, 7]"] ;
506 -> 518 ;
519 [label="X[2] <= 9709.839\ngini = 0.278\nsamples = 18\nvalue = [15, 3]"] ;
518 -> 519 ;
520 [label="gini = 0.0\nsamples = 12\nvalue = [12, 0]"] ;
519 -> 520 ;
521 [label="X[0] <= 9711.47\ngini = 0.5\nsamples = 6\nvalue = [3, 3]"] ;
519 -> 521 ;
522 [label="X[0] <= 9711.08\ngini = 0.375\nsamples = 4\nvalue = [3, 1]"] ;
521 -> 522 ;
523 [label="gini = 0.0\nsamples = 1\nvalue = [0, 1]"] ;
522 -> 523 ;
524 [label="gini = 0.0\nsamples = 3\nvalue = [3, 0]"] ;
522 -> 524 ;
525 [label="gini = 0.0\nsamples = 2\nvalue = [0, 2]"] ;
521 -> 525 ;
526 [label="X[3] <= 9701.422\ngini = 0.32\nsamples = 5\nvalue = [1, 4]"] ;
518 -> 526 ;
527 [label="gini = 0.0\nsamples = 3\nvalue = [0, 3]"] ;
526 -> 527 ;
528 [label="X[1] <= 9718.133\ngini = 0.5\nsamples = 2\nvalue = [1, 1]"] ;
526 -> 528 ;
529 [label="gini = 0.0\nsamples = 1\nvalue = [1, 0]"] ;
528 -> 529 ;
530 [label="gini = 0.0\nsamples = 1\nvalue = [0, 1]"] ;
528 -> 530 ;
531 [label="X[3] <= 9717.973\ngini = 0.238\nsamples = 29\nvalue = [4, 25]"] ;
487 -> 531 ;
532 [label="gini = 0.0\nsamples = 15\nvalue = [0, 15]"] ;
531 -> 532 ;
533 [label="X[3] <= 9719.596\ngini = 0.408\nsamples = 14\nvalue = [4, 10]"] ;
531 -> 533 ;
534 [label="gini = 0.0\nsamples = 4\nvalue = [4, 0]"] ;
533 -> 534 ;
535 [label="gini = 0.0\nsamples = 10\nvalue = [0, 10]"] ;
533 -> 535 ;
536 [label="X[3] <= 9747.991\ngini = 0.382\nsamples = 35\nvalue = [26, 9]"] ;
486 -> 536 ;
537 [label="gini = 0.0\nsamples = 20\nvalue = [20, 0]"] ;
536 -> 537 ;
538 [label="X[0] <= 9734.22\ngini = 0.48\nsamples = 15\nvalue = [6, 9]"] ;
536 -> 538 ;
539 [label="gini = 0.0\nsamples = 4\nvalue = [4, 0]"] ;
538 -> 539 ;
540 [label="X[3] <= 9753.265\ngini = 0.298\nsamples = 11\nvalue = [2, 9]"] ;
538 -> 540 ;
541 [label="gini = 0.0\nsamples = 5\nvalue = [0, 5]"] ;
540 -> 541 ;
542 [label="X[1] <= 9706.269\ngini = 0.444\nsamples = 6\nvalue = [2, 4]"] ;
540 -> 542 ;
543 [label="gini = 0.0\nsamples = 3\nvalue = [0, 3]"] ;
542 -> 543 ;
544 [label="X[0] <= 9737.705\ngini = 0.444\nsamples = 3\nvalue = [2, 1]"] ;
542 -> 544 ;
545 [label="gini = 0.0\nsamples = 2\nvalue = [2, 0]"] ;
544 -> 545 ;
546 [label="gini = 0.0\nsamples = 1\nvalue = [0, 1]"] ;
544 -> 546 ;
547 [label="X[0] <= 9700.95\ngini = 0.105\nsamples = 54\nvalue = [3, 51]"] ;
485 -> 547 ;
548 [label="X[3] <= 9765.592\ngini = 0.5\nsamples = 4\nvalue = [2, 2]"] ;
547 -> 548 ;
549 [label="gini = 0.0\nsamples = 2\nvalue = [0, 2]"] ;
548 -> 549 ;
550 [label="gini = 0.0\nsamples = 2\nvalue = [2, 0]"] ;
548 -> 550 ;
551 [label="X[2] <= 9716.332\ngini = 0.039\nsamples = 50\nvalue = [1, 49]"] ;
547 -> 551 ;
552 [label="X[2] <= 9716.276\ngini = 0.278\nsamples = 6\nvalue = [1, 5]"] ;
551 -> 552 ;
553 [label="gini = 0.0\nsamples = 5\nvalue = [0, 5]"] ;
552 -> 553 ;
554 [label="gini = 0.0\nsamples = 1\nvalue = [1, 0]"] ;
552 -> 554 ;
555 [label="gini = 0.0\nsamples = 44\nvalue = [0, 44]"] ;
551 -> 555 ;
556 [label="X[0] <= 9761.25\ngini = 0.455\nsamples = 254\nvalue = [165, 89]"] ;
216 -> 556 ;
557 [label="X[1] <= 9747.616\ngini = 0.399\nsamples = 189\nvalue = [137, 52]"] ;
556 -> 557 ;
558 [label="X[1] <= 9743.601\ngini = 0.441\nsamples = 143\nvalue = [96, 47]"] ;
557 -> 558 ;
559 [label="X[2] <= 9716.75\ngini = 0.39\nsamples = 128\nvalue = [94, 34]"] ;
558 -> 559 ;
560 [label="X[3] <= 9742.452\ngini = 0.087\nsamples = 22\nvalue = [21, 1]"] ;
559 -> 560 ;
561 [label="gini = 0.0\nsamples = 16\nvalue = [16, 0]"] ;
560 -> 561 ;
562 [label="X[1] <= 9728.783\ngini = 0.278\nsamples = 6\nvalue = [5, 1]"] ;
560 -> 562 ;
563 [label="gini = 0.0\nsamples = 5\nvalue = [5, 0]"] ;
562 -> 563 ;
564 [label="gini = 0.0\nsamples = 1\nvalue = [0, 1]"] ;
562 -> 564 ;
565 [label="X[2] <= 9720.731\ngini = 0.429\nsamples = 106\nvalue = [73, 33]"] ;
559 -> 565 ;
566 [label="X[0] <= 9720.725\ngini = 0.415\nsamples = 17\nvalue = [5, 12]"] ;
565 -> 566 ;
567 [label="X[3] <= 9718.519\ngini = 0.32\nsamples = 15\nvalue = [3, 12]"] ;
566 -> 567 ;
568 [label="X[1] <= 9727.542\ngini = 0.444\nsamples = 9\nvalue = [3, 6]"] ;
567 -> 568 ;
569 [label="X[3] <= 9716.986\ngini = 0.245\nsamples = 7\nvalue = [1, 6]"] ;
568 -> 569 ;
570 [label="X[1] <= 9726.161\ngini = 0.444\nsamples = 3\nvalue = [1, 2]"] ;
569 -> 570 ;
571 [label="gini = 0.0\nsamples = 2\nvalue = [0, 2]"] ;
570 -> 571 ;
572 [label="gini = 0.0\nsamples = 1\nvalue = [1, 0]"] ;
570 -> 572 ;
573 [label="gini = 0.0\nsamples = 4\nvalue = [0, 4]"] ;
569 -> 573 ;
574 [label="gini = 0.0\nsamples = 2\nvalue = [2, 0]"] ;
568 -> 574 ;
575 [label="gini = 0.0\nsamples = 6\nvalue = [0, 6]"] ;
567 -> 575 ;
576 [label="gini = 0.0\nsamples = 2\nvalue = [2, 0]"] ;
566 -> 576 ;
577 [label="X[0] <= 9741.79\ngini = 0.361\nsamples = 89\nvalue = [68, 21]"] ;
565 -> 577 ;
578 [label="X[2] <= 9752.91\ngini = 0.245\nsamples = 63\nvalue = [54, 9]"] ;
577 -> 578 ;
579 [label="X[0] <= 9729.52\ngini = 0.183\nsamples = 59\nvalue = [53, 6]"] ;
578 -> 579 ;
580 [label="gini = 0.0\nsamples = 29\nvalue = [29, 0]"] ;
579 -> 580 ;
581 [label="X[0] <= 9729.86\ngini = 0.32\nsamples = 30\nvalue = [24, 6]"] ;
579 -> 581 ;
582 [label="gini = 0.0\nsamples = 2\nvalue = [0, 2]"] ;
581 -> 582 ;
583 [label="X[1] <= 9729.606\ngini = 0.245\nsamples = 28\nvalue = [24, 4]"] ;
581 -> 583 ;
584 [label="X[3] <= 9733.414\ngini = 0.49\nsamples = 7\nvalue = [4, 3]"] ;
583 -> 584 ;
585 [label="gini = 0.0\nsamples = 3\nvalue = [3, 0]"] ;
584 -> 585 ;
586 [label="X[1] <= 9728.975\ngini = 0.375\nsamples = 4\nvalue = [1, 3]"] ;
584 -> 586 ;
587 [label="gini = 0.0\nsamples = 2\nvalue = [0, 2]"] ;
586 -> 587 ;
588 [label="X[1] <= 9729.393\ngini = 0.5\nsamples = 2\nvalue = [1, 1]"] ;
586 -> 588 ;
589 [label="gini = 0.0\nsamples = 1\nvalue = [1, 0]"] ;
588 -> 589 ;
590 [label="gini = 0.0\nsamples = 1\nvalue = [0, 1]"] ;
588 -> 590 ;
591 [label="X[0] <= 9731.595\ngini = 0.091\nsamples = 21\nvalue = [20, 1]"] ;
583 -> 591 ;
592 [label="X[0] <= 9731.185\ngini = 0.375\nsamples = 4\nvalue = [3, 1]"] ;
591 -> 592 ;
593 [label="gini = 0.0\nsamples = 3\nvalue = [3, 0]"] ;
592 -> 593 ;
594 [label="gini = 0.0\nsamples = 1\nvalue = [0, 1]"] ;
592 -> 594 ;
595 [label="gini = 0.0\nsamples = 17\nvalue = [17, 0]"] ;
591 -> 595 ;
596 [label="X[1] <= 9737.577\ngini = 0.375\nsamples = 4\nvalue = [1, 3]"] ;
578 -> 596 ;
597 [label="gini = 0.0\nsamples = 3\nvalue = [0, 3]"] ;
596 -> 597 ;
598 [label="gini = 0.0\nsamples = 1\nvalue = [1, 0]"] ;
596 -> 598 ;
599 [label="X[3] <= 9724.359\ngini = 0.497\nsamples = 26\nvalue = [14, 12]"] ;
577 -> 599 ;
600 [label="X[2] <= 9744.804\ngini = 0.415\nsamples = 17\nvalue = [12, 5]"] ;
599 -> 600 ;
601 [label="X[1] <= 9725.661\ngini = 0.18\nsamples = 10\nvalue = [9, 1]"] ;
600 -> 601 ;
602 [label="X[1] <= 9725.346\ngini = 0.444\nsamples = 3\nvalue = [2, 1]"] ;
601 -> 602 ;
603 [label="gini = 0.0\nsamples = 2\nvalue = [2, 0]"] ;
602 -> 603 ;
604 [label="gini = 0.0\nsamples = 1\nvalue = [0, 1]"] ;
602 -> 604 ;
605 [label="gini = 0.0\nsamples = 7\nvalue = [7, 0]"] ;
601 -> 605 ;
606 [label="X[3] <= 9652.352\ngini = 0.49\nsamples = 7\nvalue = [3, 4]"] ;
600 -> 606 ;
607 [label="gini = 0.0\nsamples = 4\nvalue = [0, 4]"] ;
606 -> 607 ;
608 [label="gini = 0.0\nsamples = 3\nvalue = [3, 0]"] ;
606 -> 608 ;
609 [label="X[0] <= 9743.615\ngini = 0.346\nsamples = 9\nvalue = [2, 7]"] ;
599 -> 609 ;
610 [label="gini = 0.0\nsamples = 4\nvalue = [0, 4]"] ;
609 -> 610 ;
611 [label="X[2] <= 9731.885\ngini = 0.48\nsamples = 5\nvalue = [2, 3]"] ;
609 -> 611 ;
612 [label="gini = 0.0\nsamples = 2\nvalue = [0, 2]"] ;
611 -> 612 ;
613 [label="X[0] <= 9744.76\ngini = 0.444\nsamples = 3\nvalue = [2, 1]"] ;
611 -> 613 ;
614 [label="gini = 0.0\nsamples = 2\nvalue = [2, 0]"] ;
613 -> 614 ;
615 [label="gini = 0.0\nsamples = 1\nvalue = [0, 1]"] ;
613 -> 615 ;
616 [label="X[0] <= 9678.065\ngini = 0.231\nsamples = 15\nvalue = [2, 13]"] ;
558 -> 616 ;
617 [label="gini = 0.0\nsamples = 1\nvalue = [1, 0]"] ;
616 -> 617 ;
618 [label="X[2] <= 9701.395\ngini = 0.133\nsamples = 14\nvalue = [1, 13]"] ;
616 -> 618 ;
619 [label="gini = 0.0\nsamples = 1\nvalue = [1, 0]"] ;
618 -> 619 ;
620 [label="gini = 0.0\nsamples = 13\nvalue = [0, 13]"] ;
618 -> 620 ;
621 [label="X[0] <= 9681.54\ngini = 0.194\nsamples = 46\nvalue = [41, 5]"] ;
557 -> 621 ;
622 [label="X[3] <= 9782.597\ngini = 0.48\nsamples = 5\nvalue = [3, 2]"] ;
621 -> 622 ;
623 [label="gini = 0.0\nsamples = 2\nvalue = [0, 2]"] ;
622 -> 623 ;
624 [label="gini = 0.0\nsamples = 3\nvalue = [3, 0]"] ;
622 -> 624 ;
625 [label="X[0] <= 9756.855\ngini = 0.136\nsamples = 41\nvalue = [38, 3]"] ;
621 -> 625 ;
626 [label="X[1] <= 9779.637\ngini = 0.059\nsamples = 33\nvalue = [32, 1]"] ;
625 -> 626 ;
627 [label="gini = 0.0\nsamples = 26\nvalue = [26, 0]"] ;
626 -> 627 ;
628 [label="X[1] <= 9780.64\ngini = 0.245\nsamples = 7\nvalue = [6, 1]"] ;
626 -> 628 ;
629 [label="gini = 0.0\nsamples = 1\nvalue = [0, 1]"] ;
628 -> 629 ;
630 [label="gini = 0.0\nsamples = 6\nvalue = [6, 0]"] ;
628 -> 630 ;
631 [label="X[0] <= 9757.515\ngini = 0.375\nsamples = 8\nvalue = [6, 2]"] ;
625 -> 631 ;
632 [label="gini = 0.0\nsamples = 2\nvalue = [0, 2]"] ;
631 -> 632 ;
633 [label="gini = 0.0\nsamples = 6\nvalue = [6, 0]"] ;
631 -> 633 ;
634 [label="X[3] <= 9709.589\ngini = 0.49\nsamples = 65\nvalue = [28, 37]"] ;
556 -> 634 ;
635 [label="X[0] <= 9786.35\ngini = 0.346\nsamples = 27\nvalue = [6, 21]"] ;
634 -> 635 ;
636 [label="X[1] <= 9789.116\ngini = 0.219\nsamples = 24\nvalue = [3, 21]"] ;
635 -> 636 ;
637 [label="X[3] <= 9609.938\ngini = 0.159\nsamples = 23\nvalue = [2, 21]"] ;
636 -> 637 ;
638 [label="X[1] <= 9748.63\ngini = 0.444\nsamples = 6\nvalue = [2, 4]"] ;
637 -> 638 ;
639 [label="X[2] <= 9659.891\ngini = 0.32\nsamples = 5\nvalue = [1, 4]"] ;
638 -> 639 ;
640 [label="gini = 0.0\nsamples = 2\nvalue = [0, 2]"] ;
639 -> 640 ;
641 [label="X[2] <= 9665.625\ngini = 0.444\nsamples = 3\nvalue = [1, 2]"] ;
639 -> 641 ;
642 [label="gini = 0.0\nsamples = 1\nvalue = [1, 0]"] ;
641 -> 642 ;
643 [label="gini = 0.0\nsamples = 2\nvalue = [0, 2]"] ;
641 -> 643 ;
644 [label="gini = 0.0\nsamples = 1\nvalue = [1, 0]"] ;
638 -> 644 ;
645 [label="gini = 0.0\nsamples = 17\nvalue = [0, 17]"] ;
637 -> 645 ;
646 [label="gini = 0.0\nsamples = 1\nvalue = [1, 0]"] ;
636 -> 646 ;
647 [label="gini = 0.0\nsamples = 3\nvalue = [3, 0]"] ;
635 -> 647 ;
648 [label="X[1] <= 9785.727\ngini = 0.488\nsamples = 38\nvalue = [22, 16]"] ;
634 -> 648 ;
649 [label="X[3] <= 9795.382\ngini = 0.4\nsamples = 29\nvalue = [21, 8]"] ;
648 -> 649 ;
650 [label="X[0] <= 9787.615\ngini = 0.278\nsamples = 24\nvalue = [20, 4]"] ;
649 -> 650 ;
651 [label="X[3] <= 9718.062\ngini = 0.227\nsamples = 23\nvalue = [20, 3]"] ;
650 -> 651 ;
652 [label="X[1] <= 9760.833\ngini = 0.355\nsamples = 13\nvalue = [10, 3]"] ;
651 -> 652 ;
653 [label="X[0] <= 9784.895\ngini = 0.165\nsamples = 11\nvalue = [10, 1]"] ;
652 -> 653 ;
654 [label="gini = 0.0\nsamples = 7\nvalue = [7, 0]"] ;
653 -> 654 ;
655 [label="X[0] <= 9785.495\ngini = 0.375\nsamples = 4\nvalue = [3, 1]"] ;
653 -> 655 ;
656 [label="gini = 0.0\nsamples = 1\nvalue = [0, 1]"] ;
655 -> 656 ;
657 [label="gini = 0.0\nsamples = 3\nvalue = [3, 0]"] ;
655 -> 657 ;
658 [label="gini = 0.0\nsamples = 2\nvalue = [0, 2]"] ;
652 -> 658 ;
659 [label="gini = 0.0\nsamples = 10\nvalue = [10, 0]"] ;
651 -> 659 ;
660 [label="gini = 0.0\nsamples = 1\nvalue = [0, 1]"] ;
650 -> 660 ;
661 [label="X[0] <= 9771.57\ngini = 0.32\nsamples = 5\nvalue = [1, 4]"] ;
649 -> 661 ;
662 [label="gini = 0.0\nsamples = 1\nvalue = [1, 0]"] ;
661 -> 662 ;
663 [label="gini = 0.0\nsamples = 4\nvalue = [0, 4]"] ;
661 -> 663 ;
664 [label="X[1] <= 9790.839\ngini = 0.198\nsamples = 9\nvalue = [1, 8]"] ;
648 -> 664 ;
665 [label="gini = 0.0\nsamples = 8\nvalue = [0, 8]"] ;
664 -> 665 ;
666 [label="gini = 0.0\nsamples = 1\nvalue = [1, 0]"] ;
664 -> 666 ;
667 [label="X[1] <= 9771.145\ngini = 0.111\nsamples = 17\nvalue = [1, 16]"] ;
215 -> 667 ;
668 [label="gini = 0.0\nsamples = 15\nvalue = [0, 15]"] ;
667 -> 668 ;
669 [label="X[1] <= 9783.729\ngini = 0.5\nsamples = 2\nvalue = [1, 1]"] ;
667 -> 669 ;
670 [label="gini = 0.0\nsamples = 1\nvalue = [1, 0]"] ;
669 -> 670 ;
671 [label="gini = 0.0\nsamples = 1\nvalue = [0, 1]"] ;
669 -> 671 ;
672 [label="X[2] <= 9797.177\ngini = 0.215\nsamples = 49\nvalue = [6, 43]"] ;
214 -> 672 ;
673 [label="gini = 0.0\nsamples = 43\nvalue = [0, 43]"] ;
672 -> 673 ;
674 [label="gini = 0.0\nsamples = 6\nvalue = [6, 0]"] ;
672 -> 674 ;
675 [label="X[0] <= 9797.845\ngini = 0.427\nsamples = 220\nvalue = [152, 68]"] ;
213 -> 675 ;
676 [label="X[1] <= 9800.626\ngini = 0.205\nsamples = 69\nvalue = [61, 8]"] ;
675 -> 676 ;
677 [label="X[3] <= 9791.947\ngini = 0.413\nsamples = 24\nvalue = [17, 7]"] ;
676 -> 677 ;
678 [label="X[2] <= 9783.977\ngini = 0.492\nsamples = 16\nvalue = [9, 7]"] ;
677 -> 678 ;
679 [label="gini = 0.0\nsamples = 7\nvalue = [7, 0]"] ;
678 -> 679 ;
680 [label="X[1] <= 9793.312\ngini = 0.346\nsamples = 9\nvalue = [2, 7]"] ;
678 -> 680 ;
681 [label="X[3] <= 9714.625\ngini = 0.444\nsamples = 3\nvalue = [2, 1]"] ;
680 -> 681 ;
682 [label="gini = 0.0\nsamples = 1\nvalue = [0, 1]"] ;
681 -> 682 ;
683 [label="gini = 0.0\nsamples = 2\nvalue = [2, 0]"] ;
681 -> 683 ;
684 [label="gini = 0.0\nsamples = 6\nvalue = [0, 6]"] ;
680 -> 684 ;
685 [label="gini = 0.0\nsamples = 8\nvalue = [8, 0]"] ;
677 -> 685 ;
686 [label="X[1] <= 9802.43\ngini = 0.043\nsamples = 45\nvalue = [44, 1]"] ;
676 -> 686 ;
687 [label="X[2] <= 9788.44\ngini = 0.198\nsamples = 9\nvalue = [8, 1]"] ;
686 -> 687 ;
688 [label="gini = 0.0\nsamples = 8\nvalue = [8, 0]"] ;
687 -> 688 ;
689 [label="gini = 0.0\nsamples = 1\nvalue = [0, 1]"] ;
687 -> 689 ;
690 [label="gini = 0.0\nsamples = 36\nvalue = [36, 0]"] ;
686 -> 690 ;
691 [label="X[2] <= 10100.868\ngini = 0.479\nsamples = 151\nvalue = [91, 60]"] ;
675 -> 691 ;
692 [label="X[2] <= 9798.589\ngini = 0.491\nsamples = 139\nvalue = [79, 60]"] ;
691 -> 692 ;
693 [label="X[2] <= 9719.942\ngini = 0.393\nsamples = 52\nvalue = [38, 14]"] ;
692 -> 693 ;
694 [label="gini = 0.0\nsamples = 5\nvalue = [0, 5]"] ;
693 -> 694 ;
695 [label="X[0] <= 9802.7\ngini = 0.31\nsamples = 47\nvalue = [38, 9]"] ;
693 -> 695 ;
696 [label="X[1] <= 9804.838\ngini = 0.494\nsamples = 9\nvalue = [4, 5]"] ;
695 -> 696 ;
697 [label="gini = 0.0\nsamples = 4\nvalue = [0, 4]"] ;
696 -> 697 ;
698 [label="X[3] <= 9779.1\ngini = 0.32\nsamples = 5\nvalue = [4, 1]"] ;
696 -> 698 ;
699 [label="gini = 0.0\nsamples = 4\nvalue = [4, 0]"] ;
698 -> 699 ;
700 [label="gini = 0.0\nsamples = 1\nvalue = [0, 1]"] ;
698 -> 700 ;
701 [label="X[1] <= 9794.221\ngini = 0.188\nsamples = 38\nvalue = [34, 4]"] ;
695 -> 701 ;
702 [label="X[0] <= 9824.875\ngini = 0.397\nsamples = 11\nvalue = [8, 3]"] ;
701 -> 702 ;
703 [label="X[2] <= 9797.845\ngini = 0.219\nsamples = 8\nvalue = [7, 1]"] ;
702 -> 703 ;
704 [label="gini = 0.0\nsamples = 6\nvalue = [6, 0]"] ;
703 -> 704 ;
705 [label="X[3] <= 9721.556\ngini = 0.5\nsamples = 2\nvalue = [1, 1]"] ;
703 -> 705 ;
706 [label="gini = 0.0\nsamples = 1\nvalue = [0, 1]"] ;
705 -> 706 ;
707 [label="gini = 0.0\nsamples = 1\nvalue = [1, 0]"] ;
705 -> 707 ;
708 [label="X[2] <= 9797.013\ngini = 0.444\nsamples = 3\nvalue = [1, 2]"] ;
702 -> 708 ;
709 [label="gini = 0.0\nsamples = 2\nvalue = [0, 2]"] ;
708 -> 709 ;
710 [label="gini = 0.0\nsamples = 1\nvalue = [1, 0]"] ;
708 -> 710 ;
711 [label="X[0] <= 9805.485\ngini = 0.071\nsamples = 27\nvalue = [26, 1]"] ;
701 -> 711 ;
712 [label="X[0] <= 9804.74\ngini = 0.375\nsamples = 4\nvalue = [3, 1]"] ;
711 -> 712 ;
713 [label="gini = 0.0\nsamples = 3\nvalue = [3, 0]"] ;
712 -> 713 ;
714 [label="gini = 0.0\nsamples = 1\nvalue = [0, 1]"] ;
712 -> 714 ;
715 [label="gini = 0.0\nsamples = 23\nvalue = [23, 0]"] ;
711 -> 715 ;
716 [label="X[1] <= 9809.854\ngini = 0.498\nsamples = 87\nvalue = [41, 46]"] ;
692 -> 716 ;
717 [label="gini = 0.0\nsamples = 13\nvalue = [0, 13]"] ;
716 -> 717 ;
718 [label="X[1] <= 10125.092\ngini = 0.494\nsamples = 74\nvalue = [41, 33]"] ;
716 -> 718 ;
719 [label="X[1] <= 10108.807\ngini = 0.5\nsamples = 66\nvalue = [34, 32]"] ;
718 -> 719 ;
720 [label="X[3] <= 9834.379\ngini = 0.49\nsamples = 56\nvalue = [32, 24]"] ;
719 -> 720 ;
721 [label="X[3] <= 9693.613\ngini = 0.484\nsamples = 34\nvalue = [14, 20]"] ;
720 -> 721 ;
722 [label="gini = 0.0\nsamples = 4\nvalue = [4, 0]"] ;
721 -> 722 ;
723 [label="X[1] <= 10098.362\ngini = 0.444\nsamples = 30\nvalue = [10, 20]"] ;
721 -> 723 ;
724 [label="X[1] <= 10092.59\ngini = 0.491\nsamples = 23\nvalue = [10, 13]"] ;
723 -> 724 ;
725 [label="X[0] <= 10094.07\ngini = 0.401\nsamples = 18\nvalue = [5, 13]"] ;
724 -> 725 ;
726 [label="X[1] <= 10090.78\ngini = 0.48\nsamples = 5\nvalue = [3, 2]"] ;
725 -> 726 ;
727 [label="X[1] <= 9810.722\ngini = 0.444\nsamples = 3\nvalue = [1, 2]"] ;
726 -> 727 ;
728 [label="gini = 0.0\nsamples = 1\nvalue = [1, 0]"] ;
727 -> 728 ;
729 [label="gini = 0.0\nsamples = 2\nvalue = [0, 2]"] ;
727 -> 729 ;
730 [label="gini = 0.0\nsamples = 2\nvalue = [2, 0]"] ;
726 -> 730 ;
731 [label="X[2] <= 9848.037\ngini = 0.26\nsamples = 13\nvalue = [2, 11]"] ;
725 -> 731 ;
732 [label="X[3] <= 9696.474\ngini = 0.5\nsamples = 2\nvalue = [1, 1]"] ;
731 -> 732 ;
733 [label="gini = 0.0\nsamples = 1\nvalue = [0, 1]"] ;
732 -> 733 ;
734 [label="gini = 0.0\nsamples = 1\nvalue = [1, 0]"] ;
732 -> 734 ;
735 [label="X[1] <= 10091.601\ngini = 0.165\nsamples = 11\nvalue = [1, 10]"] ;
731 -> 735 ;
736 [label="gini = 0.0\nsamples = 6\nvalue = [0, 6]"] ;
735 -> 736 ;
737 [label="X[1] <= 10091.897\ngini = 0.32\nsamples = 5\nvalue = [1, 4]"] ;
735 -> 737 ;
738 [label="gini = 0.0\nsamples = 1\nvalue = [1, 0]"] ;
737 -> 738 ;
739 [label="gini = 0.0\nsamples = 4\nvalue = [0, 4]"] ;
737 -> 739 ;
740 [label="gini = 0.0\nsamples = 5\nvalue = [5, 0]"] ;
724 -> 740 ;
741 [label="gini = 0.0\nsamples = 7\nvalue = [0, 7]"] ;
723 -> 741 ;
742 [label="X[2] <= 10099.76\ngini = 0.298\nsamples = 22\nvalue = [18, 4]"] ;
720 -> 742 ;
743 [label="X[0] <= 10109.16\ngini = 0.375\nsamples = 16\nvalue = [12, 4]"] ;
742 -> 743 ;
744 [label="X[2] <= 10099.671\ngini = 0.32\nsamples = 15\nvalue = [12, 3]"] ;
743 -> 744 ;
745 [label="X[3] <= 9939.638\ngini = 0.245\nsamples = 14\nvalue = [12, 2]"] ;
744 -> 745 ;
746 [label="X[1] <= 10090.135\ngini = 0.375\nsamples = 8\nvalue = [6, 2]"] ;
745 -> 746 ;
747 [label="gini = 0.0\nsamples = 1\nvalue = [0, 1]"] ;
746 -> 747 ;
748 [label="X[1] <= 10106.664\ngini = 0.245\nsamples = 7\nvalue = [6, 1]"] ;
746 -> 748 ;
749 [label="gini = 0.0\nsamples = 6\nvalue = [6, 0]"] ;
748 -> 749 ;
750 [label="gini = 0.0\nsamples = 1\nvalue = [0, 1]"] ;
748 -> 750 ;
751 [label="gini = 0.0\nsamples = 6\nvalue = [6, 0]"] ;
745 -> 751 ;
752 [label="gini = 0.0\nsamples = 1\nvalue = [0, 1]"] ;
744 -> 752 ;
753 [label="gini = 0.0\nsamples = 1\nvalue = [0, 1]"] ;
743 -> 753 ;
754 [label="gini = 0.0\nsamples = 6\nvalue = [6, 0]"] ;
742 -> 754 ;
755 [label="X[3] <= 9749.069\ngini = 0.32\nsamples = 10\nvalue = [2, 8]"] ;
719 -> 755 ;
756 [label="X[1] <= 10120.445\ngini = 0.444\nsamples = 3\nvalue = [2, 1]"] ;
755 -> 756 ;
757 [label="gini = 0.0\nsamples = 2\nvalue = [2, 0]"] ;
756 -> 757 ;
758 [label="gini = 0.0\nsamples = 1\nvalue = [0, 1]"] ;
756 -> 758 ;
759 [label="gini = 0.0\nsamples = 7\nvalue = [0, 7]"] ;
755 -> 759 ;
760 [label="X[0] <= 10102.06\ngini = 0.219\nsamples = 8\nvalue = [7, 1]"] ;
718 -> 760 ;
761 [label="gini = 0.0\nsamples = 7\nvalue = [7, 0]"] ;
760 -> 761 ;
762 [label="gini = 0.0\nsamples = 1\nvalue = [0, 1]"] ;
760 -> 762 ;
763 [label="gini = 0.0\nsamples = 12\nvalue = [12, 0]"] ;
691 -> 763 ;
764 [label="X[3] <= 10086.581\ngini = 0.245\nsamples = 42\nvalue = [6, 36]"] ;
212 -> 764 ;
765 [label="X[0] <= 10096.91\ngini = 0.053\nsamples = 37\nvalue = [1, 36]"] ;
764 -> 765 ;
766 [label="gini = 0.0\nsamples = 1\nvalue = [1, 0]"] ;
765 -> 766 ;
767 [label="gini = 0.0\nsamples = 36\nvalue = [0, 36]"] ;
765 -> 767 ;
768 [label="gini = 0.0\nsamples = 5\nvalue = [5, 0]"] ;
764 -> 768 ;
}